{
  "type": "NeuralNetwork",
  "sizes": [5, 10, 7, 5, 5],
  "layers": [
    { "weights": [], "biases": [] },
    {
      "weights": [
        [
          -1.00563383102417, 1.1056538820266724, 1.7647545337677002,
          3.8150599002838135, -5.097645282745361
        ],
        [
          -2.29758882522583, 0.0024941221345216036, -16.949567794799805,
          14.148613929748535, 0.9204915761947632
        ],
        [
          6.697288513183594, -10.369636535644531, -1.5303493738174438,
          -0.713523268699646, 2.0073835849761963
        ],
        [
          -1.343992829322815, 8.415022850036621, -2.599144458770752,
          -5.302672386169434, -10.235270500183105
        ],
        [
          0.6210776567459106, -3.606260299682617, -3.034283399581909,
          4.804388046264648, -10.206476211547852
        ],
        [
          -2.9985623359680176, 5.068393230438232, -2.114086866378784,
          4.429725646972656, -6.887667655944824
        ],
        [
          -0.6286253929138184, 1.3442107439041138, -4.575827121734619,
          -0.362968385219574, 9.867232322692871
        ],
        [
          -13.97683334350586, 4.914409160614014, 3.8901987075805664,
          -0.4344415068626404, -0.8277705311775208
        ],
        [
          -0.3663102984428406, -0.19637952744960785, 8.91709041595459,
          -0.6810271143913269, -9.377016067504883
        ],
        [
          -17.93389129638672, 11.71597957611084, 2.159705400466919,
          2.428393840789795, 0.2484367936849594
        ]
      ],
      "biases": [
        -4.221817970275879, 0.19846563041210175, 0.2606557607650757,
        -3.0489141941070557, 8.701278686523438, -5.902553558349609,
        6.385960102081299, -1.2785776853561401, -4.160059452056885,
        -10.910581588745117
      ]
    },
    {
      "weights": [
        [
          8.226885795593262, 7.388442039489746, -8.21384048461914,
          2.4188477993011475, 5.717464923858643, -2.472991704940796,
          -4.233652114868164, -0.450620174407959, 1.496800184249878,
          -4.371615886688232
        ],
        [
          -3.526885986328125, 2.0406806468963623, -3.54335880279541,
          0.9480295181274414, 2.2164368629455566, -6.08530855178833,
          -4.835163593292236, 5.8093156814575195, 9.291351318359375,
          -2.2409682273864746
        ],
        [
          -5.9856109619140625, 1.511759877204895, -5.294126510620117,
          -4.1150689125061035, 0.25002482533454895, 4.3042402267456055,
          -8.452478408813477, 2.979642868041992, 2.14311146736145,
          -3.5563714504241943
        ],
        [
          0.9650800824165344, -3.005981206893921, 4.507492542266846,
          7.5157599449157715, -6.229046821594238, 4.963451862335205,
          0.9663162231445312, -1.4039002656936646, 6.081424713134766,
          6.705659866333008
        ],
        [
          2.5342330932617188, 8.568619728088379, -1.0856764316558838,
          -8.764163970947266, -10.607807159423828, -0.7736977338790894,
          -1.6522544622421265, -3.022486448287964, 5.997981071472168,
          -6.713647365570068
        ],
        [
          5.420671463012695, -0.9043302536010742, -14.883071899414062,
          -2.8981590270996094, -1.1534441709518433, 3.3267924785614014,
          0.7607781291007996, 0.6679092645645142, 4.442785263061523,
          1.018028736114502
        ],
        [
          -1.1047145128250122, 0.5265341997146606, -6.285181045532227,
          6.473930358886719, 7.000289440155029, -4.784892559051514,
          -0.9165857434272766, -7.699563026428223, -3.089770555496216,
          4.516303062438965
        ]
      ],
      "biases": [
        -5.863866329193115, -3.4094479084014893, 10.484662055969238,
        -3.3394858837127686, 0.5188849568367004, -7.152277946472168,
        6.2462944984436035
      ]
    },
    {
      "weights": [
        [
          3.095292568206787, -6.192958831787109, -5.618875026702881,
          9.900262832641602, -5.194035530090332, -7.829294681549072,
          -3.6945931911468506
        ],
        [
          -17.081369400024414, -2.7149176597595215, -16.411333084106445,
          3.3456575870513916, -1.8240561485290527, 3.8343305587768555,
          6.637470245361328
        ],
        [
          13.811646461486816, -8.47953987121582, -6.35386848449707,
          11.736598014831543, -9.51266098022461, -11.808996200561523,
          3.272310256958008
        ],
        [
          2.481757879257202, -6.689881324768066, -4.330210208892822,
          -3.124750852584839, -4.91453742980957, -5.109017848968506,
          3.0008318424224854
        ],
        [
          -1.0576213598251343, 0.5238828659057617, -12.211104393005371,
          5.757261276245117, -5.082737445831299, -5.482901096343994,
          12.670230865478516
        ]
      ],
      "biases": [
        3.7933835983276367, 8.169779777526855, 4.200192928314209,
        2.557960271835327, 0.09000138193368912
      ]
    },
    {
      "weights": [
        [
          -7.701911926269531, -1.8296741247177124, 15.94594669342041,
          -18.575151443481445, 1.5355013608932495
        ],
        [
          -15.3639497756958, 8.138647079467773, -4.369241714477539,
          5.512341499328613, -6.278679847717285
        ],
        [
          8.205058097839355, 7.284257411956787, 13.412042617797852,
          -0.9200263023376465, -0.266875684261322
        ],
        [
          -4.2178635597229, 18.0467586517334, 3.0021934509277344,
          -2.6485695838928223, -13.799478530883789
        ],
        [
          2.812406063079834, -4.8861613273620605, -13.911273002624512,
          1.4359331130981445, 15.600632667541504
        ]
      ],
      "biases": [
        1.9779824018478394, 14.425827980041504, -10.200326919555664,
        1.161353588104248, 1.0336188077926636
      ]
    }
  ],
  "inputLookup": null,
  "inputLookupLength": 0,
  "outputLookup": null,
  "outputLookupLength": 0,
  "options": {
    "inputSize": 0,
    "outputSize": 5,
    "binaryThresh": 0.5,
    "hiddenLayers": [10, 7, 5],
    "learningRate": 0.01,
    "iterations": 40000
  },
  "trainOpts": {
    "activation": "sigmoid",
    "iterations": 40000,
    "errorThresh": 0.005,
    "log": false,
    "logPeriod": 10,
    "leakyReluAlpha": 0.01,
    "learningRate": 0.01,
    "momentum": 0.1,
    "callbackPeriod": 10,
    "timeout": "Infinity",
    "beta1": 0.9,
    "beta2": 0.999,
    "epsilon": 1e-8
  }
}
