{"type":"NeuralNetwork","sizes":[5,10,7,5,5],"layers":[{"weights":[],"biases":[]},{"weights":[[-2.448491096496582,20.151872634887695,-3.8868045806884766,-34.29866409301758,-21.996583938598633],[-20.98747444152832,-3.15412974357605,11.33144760131836,-34.967002868652344,34.2973747253418],[13.190544128417969,-14.786162376403809,-3.142631769180298,-9.233973503112793,-14.462135314941406],[-7.762881755828857,-10.274970054626465,-6.9678144454956055,8.63847541809082,-10.293928146362305],[25.71890640258789,-0.5496216416358948,-29.134994506835938,-22.424715042114258,-4.462372779846191],[-0.03795048967003822,12.119268417358398,-23.955881118774414,-3.396493673324585,-21.675926208496094],[11.691438674926758,32.10222625732422,1.426231861114502,-29.077131271362305,-21.874759674072266],[14.678467750549316,-12.475857734680176,-4.484618186950684,-42.12335205078125,-4.543728828430176],[14.776140213012695,23.676673889160156,1.910538911819458,-15.289581298828125,-3.064404010772705],[11.560015678405762,4.544322967529297,3.6112678050994873,41.93263244628906,-18.040706634521484]],"biases":[-11.00656795501709,3.6576249599456787,1.592671275138855,2.8689939975738525,-33.99996566772461,-8.28007984161377,11.598831176757812,-7.247646331787109,1.1888642311096191,7.6767659187316895]},{"weights":[[-7.478446006774902,9.7118558883667,9.400809288024902,7.866703033447266,6.387216567993164,11.585753440856934,7.5399580001831055,10.651594161987305,-15.104886054992676,12.008095741271973],[18.437807083129883,-8.76108455657959,19.915754318237305,0.05822901055216789,-6.712069511413574,-3.318223237991333,4.683463096618652,7.925613880157471,-3.4456305503845215,-5.738358974456787],[3.0575921535491943,-11.3008394241333,-1.443030595779419,13.094910621643066,11.166299819946289,-5.397275924682617,-8.886707305908203,0.23154792189598083,-3.9885668754577637,-4.955239772796631],[-0.21295617520809174,9.297894477844238,-5.504478454589844,-1.2944245338439941,6.438188552856445,17.933202743530273,-16.820419311523438,-7.4810638427734375,5.4044084548950195,-10.452966690063477],[17.63959312438965,-15.286335945129395,12.019475936889648,-4.615749835968018,10.222912788391113,2.0183401107788086,-7.644368648529053,-1.4089676141738892,-0.9089817404747009,1.2159804105758667],[10.898569107055664,-11.642204284667969,-5.172417640686035,0.41927504539489746,-21.157676696777344,-5.444150924682617,-3.902322769165039,8.76123332977295,12.612485885620117,-18.173574447631836],[7.656744956970215,3.0860559940338135,10.755752563476562,3.413358211517334,-8.030477523803711,8.368457794189453,-15.508942604064941,24.743175506591797,-6.5450568199157715,12.27784538269043]],"biases":[-11.651823997497559,-2.6673214435577393,-1.0385879278182983,4.238595962524414,-6.500237464904785,11.919565200805664,-3.217576742172241]},{"weights":[[-3.097097873687744,-5.27721643447876,6.900354862213135,20.938302993774414,-9.583504676818848,2.9966342449188232,-7.919635772705078],[-20.986604690551758,-11.689194679260254,16.4912109375,4.253597736358643,-3.8580336570739746,-10.508530616760254,-14.784201622009277],[8.803995132446289,20.581897735595703,10.827911376953125,7.676540374755859,2.835082769393921,-7.770289897918701,-5.117076396942139],[2.366466522216797,10.223852157592773,4.0787272453308105,-11.693855285644531,-7.981752872467041,-18.676952362060547,2.2437472343444824],[-1.6419607400894165,15.409675598144531,2.0190165042877197,-15.01060962677002,12.122504234313965,3.346294403076172,-5.559699058532715]],"biases":[-15.536935806274414,0.1808626800775528,-13.882628440856934,-5.490511417388916,-6.250638008117676]},{"weights":[[1.2480757236480713,2.6465628147125244,-14.38021469116211,-1.8657598495483398,12.646069526672363],[1.8216561079025269,12.244982719421387,-14.155709266662598,17.424816131591797,8.608753204345703],[1.8590089082717896,-9.585236549377441,15.709101676940918,-7.194875717163086,-12.272964477539062],[1.210228681564331,4.582934856414795,1.6554067134857178,-24.70462417602539,18.763324737548828],[-15.877974510192871,11.038599967956543,31.877676010131836,2.2135889530181885,-9.719825744628906]],"biases":[1.1430710554122925,0.8098686337471008,0.9755668044090271,1.451553463935852,0.8402658104896545]}],"inputLookup":null,"inputLookupLength":0,"outputLookup":null,"outputLookupLength":0,"options":{"inputSize":0,"outputSize":5,"binaryThresh":0.5,"hiddenLayers":[10,7,5]},"trainOpts":{"activation":"sigmoid","iterations":20000,"errorThresh":0.005,"log":false,"logPeriod":10,"leakyReluAlpha":0.01,"learningRate":0.3,"momentum":0.1,"callbackPeriod":10,"timeout":"Infinity","beta1":0.9,"beta2":0.999,"epsilon":1e-8}}